solver_type L2R_L2LOSS_SVC_DUAL
nr_class 2
label 1 -1
nr_feature 2250
bias -1
w
-0.019497908000124381 
-0.013079723462336903 
0.023762435852275113 
0.054681553891290965 
0.044160526973557337 
-0.0076117153691391262 
-0.033949517734114872 
0.00032024721470518821 
0.026425424862912054 
0.0092075643000493496 
0.008556928722900415 
-0.0068277286723677872 
0.002525415535949043 
0.014009160060920749 
-0.0085029344048683734 
-0.0090650276197741519 
-0.0070404387069239261 
0.0081367930213576915 
0.00022303879355014698 
-0.025421660491050223 
-0.021670755606386191 
0.0028884899957027687 
0.019614709460804999 
-0.0053078953183032509 
-0.0087851734133450148 
-0.0034603201332344281 
-0.00030692790500803365 
-0.021694342191211108 
-0.0014245342572065493 
0.011601887173346204 
0.016536280173436033 
-0.04240602974171017 
0.016420838514155857 
-0.00059832249028366901 
0.017641688754014201 
0.026220829554334763 
0.033934271428056523 
0.0031892680762640457 
0.025620888135899512 
0.0023897563386572032 
0.00011976786484469349 
-0.01866109024010594 
-0.013867113358111697 
-0.036714704467279653 
0.012161513165334424 
0.0073801128482755256 
-0.0062567231247530166 
-0.016873508475409669 
-0.0076141046609688101 
-0.054388083647227699 
-0.03635617006586353 
-0.015556846134711621 
0.014111494769986504 
0.043001781811553133 
0.051955949665820067 
0.065403083802853548 
0.038793066068744678 
-0.034407724853033277 
-0.077373109817632305 
-0.067742434690102923 
-0.0023113571303192909 
0.013691720794404045 
0.032668270458730844 
-0.024145024559962994 
-0.0051065074183015303 
-0.00233885702474501 
-0.0068999263440512283 
-0.0079634178637574445 
-0.012973250446632096 
0.011597374779855387 
-0.0028797938284467221 
-0.017381742448110391 
-0.025989442003647594 
-0.038295695225451877 
0.0091057655464686759 
0.01042745555208981 
0.0011548710339811339 
-0.0097061948333912896 
0.017019783977799886 
-0.0036422387166467883 
-0.013171583155840487 
-0.020007878419362773 
-0.0040468892547229065 
0.0075643639427891568 
-0.011070810844056813 
0.04894013633876327 
0.0093005058985392297 
-0.017457000878574994 
-0.030656018822509488 
-0.038805861420280315 
-0.016690771209902526 
-0.055222471612984339 
-0.0066887605324204907 
0.001355308142075699 
0.025755561714770728 
0.066708686904796088 
0.041036605237779952 
-0.033661119880165513 
0.014001622502850985 
-0.055744574002154171 
-0.0033115536576724378 
0.021897636921966425 
-0.010560359353238518 
0.020806919825479449 
0.020208172078511097 
-0.0039972544888312806 
0.031475802255255543 
-0.011792550564487048 
0.011842272387388948 
-0.013657754310124644 
0.0079102785221966884 
-0.0047454219380678349 
-0.0086632839412093265 
0.0053327508774707755 
0.034461767121068007 
0.019524209286329971 
-0.026846844368502147 
0.024127451548424463 
-0.0029272366437998452 
0.0039477023243585079 
-0.028664018246456851 
-0.092715811641245607 
-0.01356689597588844 
-0.0039097853283278985 
0.046088933613321573 
0.032097021755438063 
-0.043972866100629102 
0.017872282640621798 
0.072109681415922139 
0.017253950840836876 
-0.036229727322838183 
0.017424864631478427 
0.043035130175953923 
-0.0037899832210813731 
-0.036333118300410909 
-0.043166676773553729 
-0.021863208701924094 
0.015967638379869153 
0.0076406053926459973 
-0.039919738612557848 
-0.019100986744571283 
0.044225529128138215 
0.039031559887257032 
-0.043256291035107156 
-0.016479891659673881 
-0.039307906411363218 
-0.018755832213302626 
0.06552592133455605 
-0.038413935148671349 
-0.053284750243365091 
0.026656134097036495 
0.034817330577446008 
0.0051199275455171504 
-0.019106095542846771 
0.03381250258749826 
0.033933885876678845 
-0.025025339253206366 
0.010187217228739189 
-0.011152575207514894 
0.025543562908341203 
0.011177489637715166 
-0.030565647916363278 
-0.059037924263331508 
0.0029626247922135245 
0.0072646134412663408 
-0.021303842828178248 
0.0034852227523401677 
0.0036259858682590683 
0.036738075141862281 
-0.006782680572093888 
-0.033051904229457293 
-0.0082371938554537064 
0.0813707622808683 
0.017286325481295706 
-0.0039337322111108125 
-0.071556044378958808 
-0.037283548500816902 
0.010031442928278553 
-0.031602331401036736 
-0.080392056672622877 
0.011799500999069255 
0.035017642078370402 
0.093560330385596885 
0.022977551017341565 
-0.046361219796181526 
-0.056890112613382504 
-0.013799082022092296 
-0.021188910434183739 
-0.022776999675487884 
0.0067604747591032636 
0.024051223293584098 
0.027209499892334219 
-0.00042010578965700671 
-0.047089329337692193 
-0.038682653466480275 
-0.028150465994117274 
0.037207055039055845 
0.0035389333392123025 
-0.01737113305647783 
-0.0047135933215734531 
0.017647658785240772 
-0.041396105620792212 
-0.022287499730333463 
0.022576023224619279 
0.073444603052410989 
0.068759381001140832 
0.0029212848609422243 
-0.0047942782436308324 
0.016621999142040798 
-0.02544297180575145 
0.0066330499384484303 
-0.053508730263359679 
0.0050194363033695651 
0.03761450641171233 
0.015880879464594766 
-0.020082241163034038 
-0.048983996956396415 
-0.044638282414422123 
-0.0034172581843912053 
0.056294809425170858 
-0.0054388175220966171 
0.026233870168204294 
0.005444289543526896 
0.012672397921661532 
-0.046986497719956971 
0.04355925833874412 
-0.0014503572654777214 
-0.009865758865638178 
-0.013156302729850907 
-0.032850676406641056 
-0.0010469607315029027 
0.0020105948728556416 
0.0068911942519340307 
0.011692772820092965 
0.063402435974674154 
0.029820159138747058 
-0.0044252642317785884 
-0.034895727062865652 
-0.021248313200395365 
-0.024794639992439669 
-0.015723941403664714 
0.0036489313295079671 
0.042846797570597984 
-0.040728076422496463 
0.01282744011541094 
0.0052762293109350298 
-0.022756845049412541 
-0.012461219286547684 
-0.010135036388787906 
0.060180347187346633 
0.022462245726427667 
-0.00050937490012037119 
0.032797959874384407 
-0.054643493238252773 
-0.031644103759663027 
-0.0022310764156359443 
0.040888313117419132 
0.025760355644658072 
-0.018874648921663691 
-0.0072938553936895646 
0.034111630938872047 
0.017398566107190861 
0.021326146616184819 
0.044015264113490424 
0.054560956169481936 
0.030545035762870824 
-0.057850390288625902 
-0.059025796441027824 
-0.041714586207096768 
0.01745959802693842 
-0.0064973319281991515 
-0.0020860893305863467 
-0.0051163565628427861 
-0.035140253482792858 
-0.0082424847845732167 
-0.063731273629838742 
0.0010404360678399596 
0.045098853483937204 
0.0022392422757898031 
-0.032243451233216452 
0.040543852858787727 
0.043697827388640122 
-0.01582679557557341 
-0.018887301161297866 
-0.015799926771150195 
0.038328999522923665 
0.023404986347666305 
-0.030269651110113371 
-0.020459958457552253 
0.044121744635169921 
0.015253381816696162 
-0.0035297710969907185 
-0.026349947363698077 
-0.023969640117704246 
-0.017628676328599425 
-0.00526807971330136 
0.020351168687646377 
-0.0063821711422643763 
-0.035478144879982132 
-0.00015754365661174605 
-0.034548912314115214 
0.0087659916486330421 
0.00062802789063124548 
-0.0013904104555643013 
0.008153949111801926 
0.027586283146010915 
0.015365642474408324 
0.034026362570238618 
0.044666263438116187 
-0.048955340523536471 
-0.034451356837423716 
-0.036768544223116137 
0.012956242666895204 
0.043378446375452524 
-0.037131696927602757 
0.016561007569851478 
0.03132916996709776 
0.012052977062008252 
-0.020860184558590598 
-0.00017170761420751794 
-0.0080038436765434567 
0.037333288361955007 
0.018871939183676131 
-0.0068503487662043405 
-0.0012227212631924103 
0.013399733657823994 
0.0037582868385286818 
0.02153210511618588 
-0.018266140707846257 
-0.003994139554996539 
0.046664772302127726 
-0.0062993278928213364 
-0.015912288011997146 
-0.042125738203098569 
0.011443612846695756 
-2.9979248647861509e-05 
0.018206039832031177 
0.025651094784391593 
-0.016362805382126588 
0.0063724983159908904 
-0.0075702284203396485 
-0.015464425145623979 
-0.012999364665664427 
0.026430667184104754 
-0.01126135644573615 
-0.011996933977155313 
0.028749377533814055 
0.0069958741058534311 
0.026276698164712928 
-1.9988172373800887e-05 
-0.030067525987164355 
0.0045299887519161877 
0.028638647699355445 
-0.014382608342073335 
-0.0296562583847861 
0.0039335010089035487 
0.0060729559820528797 
-0.016024063594022097 
-0.0046336893832528894 
0.020926773623085447 
-0.0016545613760743511 
0.01100490892890371 
0.017954803064774417 
0.0038587135338963036 
0.016113620366786791 
0.018012471650163179 
-0.0095841252218007572 
0.0011445051065672026 
-0.0046768170732923598 
0.016377865800192425 
-0.0046276995110501318 
-0.013689186802756713 
0.025029004409267985 
0.033265493585790895 
0.017153335873804226 
-0.064192224213265328 
-0.012648068039874373 
0.02389642619203634 
-0.068352477394754682 
-0.051782120044353147 
-0.012130532007307725 
0.045498632914664223 
0.042603763477223264 
-0.0026261321086740634 
0.025756985571997772 
-0.022122045775759044 
-0.026223509798393944 
-0.0081743694341098599 
0.013179908564466226 
0.037601611428801036 
-0.049168195708772781 
-0.032861765370232096 
0.023748241506313911 
0.046633430871336486 
-0.0078851158778332833 
-0.041047909642715312 
-0.0023595996817940054 
0.0036135747279773247 
0.023997114808631925 
-0.0015580729387441102 
0.004295090494742239 
-0.0083641253216876193 
-0.075274963888966026 
-0.071652031130941984 
-0.011427818161526476 
0.031619814060329328 
-0.0051340525330472878 
-0.013855602150609613 
-0.00034672422192071945 
0.033957158093897197 
-0.0079024906814193479 
-0.057916717706351484 
-0.031985458689632831 
0.011493356219387024 
0.0061749224158528125 
-0.004532883684050454 
-0.056125185869576627 
-0.022067127764371728 
0.012939266509668947 
0.0010942621349731738 
-0.0020163457942293443 
-0.02214445428480117 
0.024367855259528351 
-0.015676743546472797 
-0.036301879653874235 
-0.049055470044824773 
0.01133303733413942 
0.013538934629185791 
-0.0021841692454312215 
-0.033015692349322986 
0.01946333501114721 
-0.034508533604560465 
-0.066852173079859037 
-0.056516526594288866 
-0.044019276542886406 
0.022950609272590412 
0.023091218697635901 
0.05005674028351717 
0.043710048263279379 
-0.0060870841760102736 
-0.029221449307103693 
-0.052223631948482854 
-0.031327496601725631 
0.032140890023615962 
0.042879385186006092 
0.021222595379700733 
0.007015628888765277 
-0.002202843221723331 
-0.020882047669483379 
-0.057298467030905638 
-0.012564798068690189 
-0.01974912755533351 
0.011808091350301857 
-0.043908650120024616 
-0.01907986028638706 
0.013637521919764703 
0.040883180856562847 
0.00047771286038169025 
-2.1092446814032687e-05 
0.024619019076489036 
0.0036344502639594038 
0.010158365901180244 
-0.013848575038960547 
-0.016323524248488149 
-0.026203784227796449 
-0.0065681386523778014 
0.0054574293475424234 
0.033273736350532039 
0.036409996867857945 
0.011426150717107173 
-0.012882044035939668 
0.011746962338911334 
0.010770578526630789 
-0.013001169720711626 
0.050000634147578972 
0.028049555570008176 
0.014697781500268335 
-0.0062219352934382898 
0.00034829002370771875 
0.0017834082282151115 
-0.039191173625419122 
-0.029146769143731061 
0.045457308838165698 
0.0091689321157853408 
-0.0019777164643015877 
-0.030649749432438034 
0.026422898171858888 
0.01084135977461002 
0.056715437427541003 
0.056111046280216181 
-0.010082175235689541 
-0.0039054931050091992 
-0.010649861715949508 
-0.022785551518809437 
-0.030857139706355702 
0.0096970969861731454 
0.044518048296552072 
-0.0081246285993608683 
-0.032157578967187996 
-0.003448850747400332 
-0.022070912448367525 
0.021324441123184872 
0.013313552276292087 
-0.0097796579585089898 
0.073149357023383835 
0.055669993032375367 
0.017436144689956239 
-0.014259191568822582 
-0.032561674525612559 
-0.0061231631728549266 
-0.0029068276940061545 
0.0092106870779788269 
0.028409294227051626 
0.029665459024684777 
0.019704195338410693 
0.00027140473065180619 
0.027680467195750208 
0.0044024793658968484 
0.025696994739207907 
-0.0096248574157020757 
-0.033101515414264697 
-0.0044600993469309487 
0.035233352257609492 
-0.056057323161464827 
-0.035080378446676906 
0.012425145372493177 
0.038054784551836057 
0.0047868205464522322 
-0.028249352571126964 
-0.026192309403127209 
0.040286755160912423 
0.01565637518773667 
-0.022909692134883614 
0.022748404377831977 
0.035601368224873656 
0.0096289407992023283 
0.01896238501301508 
0.0035548388087826869 
0.0056831025295388622 
0.0099195397844526086 
0.023708635065095001 
-0.0020564080240999469 
0.0066759483029915556 
0.0033175031517797336 
0.02486017735311926 
0.030415820960145674 
-0.054292180052395153 
-0.017289083285484522 
0.032373041304617468 
0.026821079984613992 
-0.02292695332706958 
-0.029079220542173947 
0.029752729236441587 
0.058049491089075402 
-0.0081847600544520411 
-0.020341419343427966 
-0.00024446479673574499 
0.035559392427014766 
0.023432884223377002 
-5.8863135717929464e-05 
-0.014643492150499975 
-0.016399395564885254 
0.010012948344656759 
0.020804168551807011 
0.00015168838509587785 
-0.026675085945445251 
0.0031240294066351868 
0.0014917059222639651 
-0.039152484853134939 
-0.072451590250619161 
-0.025919216181465754 
0.052689325649389655 
0.030842235748378913 
0.0094434643639126573 
-0.033321312733456974 
0.0015512286519501833 
0.011206037512428631 
-0.020649048919299057 
-0.015518221942721131 
0.025251113737115992 
0.052365466517891229 
0.0088620637149969556 
-0.044924665571381486 
-0.079794495972530202 
-0.020322188045576565 
-0.0065833472443312946 
-0.055064007409872107 
-0.035989881754206782 
-0.011122792133451295 
0.042501761743879138 
0.036798837967389211 
-0.030907839121035251 
-0.012077687436641327 
-0.0041777777660596815 
0.022866087760633057 
-0.018152565117721564 
-0.048177639256860444 
-0.033175980305385544 
0.035693601722398202 
0.065123391404529302 
-0.046253473229080161 
-0.04802608237125873 
0.0014028124107544294 
0.031939719054904968 
-0.027337775216157142 
-0.017207002162398108 
-0.032607062743354009 
0.011739113871017027 
-0.011266559081981821 
-0.0016139269382980592 
-0.05929634448744224 
-0.011635569871466609 
-0.066114457164672708 
-0.028030423161031031 
-0.0014684994154010786 
0.066436801500623296 
0.019231591242341042 
-0.0095301472572186154 
-0.068825661984602826 
-0.014508452719141973 
-0.023636153817834685 
-0.033232241595575925 
-0.032442922424706533 
-0.0099546049034995431 
-0.014850052519360349 
0.01441130628209113 
0.031407634029852839 
-0.018358580282251166 
-0.012866061555205463 
0.013828764007533937 
-0.014903428111653849 
-0.0048287279578254853 
0.0012120093850662929 
-0.0039255414302929803 
-0.0074588425226679708 
0.0033917405026923793 
0.022253980620809438 
-0.022956597340333149 
-0.0085957577850230855 
-0.074209930074690789 
0.036995864904484199 
0.042780571933263019 
0.017720660361427693 
0.040420171741794568 
0.067881016727322024 
0.010089964886753519 
-0.035687772127029532 
-0.04030460461372945 
-0.07080477222316145 
-0.024807728731159721 
0.027102416406914808 
0.048179959651650554 
0.051158853190810732 
0.019578922010515223 
0.0030895509338141843 
-0.0090256968168290416 
-0.032771954258095655 
-0.01785257016858471 
-0.04556140342696121 
-0.024439263736062394 
0.028519962735142377 
0.043123977520782612 
0.053750774562503219 
0.026909057973085206 
0.012023047766748052 
0.00024126765405044516 
-0.098590166257433318 
-0.014966763328181275 
0.024200039857237243 
0.021383832215311066 
-0.0023057494270455753 
-0.015753375154191004 
0.041450388364683045 
-0.000161357032265884 
-0.069938898418283102 
0.01583548467721875 
0.0051381585104019181 
-0.0079759563199372358 
-0.014662742174378207 
-0.028814691151037811 
0.010501907053869993 
0.032474608555250584 
0.0081722365230483852 
-0.019966078198542032 
-0.0070638919938548926 
0.001812534587758196 
-0.018514390054541065 
0.017594078699054615 
-0.016780888894749903 
-0.0092908686347595183 
0.024422647329959763 
0.021477118610232753 
0.010236580554578725 
-0.0026840393014340453 
0.00039411736517175035 
0.0062176250003176834 
0.07043301052543112 
0.016365274027692115 
0.0059120878387301885 
0.01685828658179268 
-0.036448543357882592 
0.0053945899564427861 
0.038257109033378429 
0.058842997211278801 
0.029215951738664522 
-0.0015135887195662462 
-0.042169498059174249 
-0.055076717747088638 
-0.022146140396992656 
0.0109543594580967 
0.013571132193049644 
0.00802161389180534 
0.033559194972804691 
0.013280363063121159 
-0.029451040622175888 
-0.03824819680362454 
0.019979370491830867 
0.020835091549115826 
0.018936555708775765 
0.015519570244697106 
-0.0068097898441427662 
0.032679252124699833 
0.0048525211786157969 
-0.0057063470316425424 
0.021532007195943427 
-0.00081465932170658381 
-0.012059506585479402 
-0.046647780131803693 
-0.01590052330016507 
-0.00061445102331976953 
0.058492962008766108 
0.0070488730164821227 
-0.022434871798590189 
-0.0098556728947699502 
0.032436141978463361 
0.0079828409608307983 
0.00342264968800828 
0.00079334535417396683 
0.017687482230222876 
-0.0064347138571363306 
0.02200203819978654 
0.018188492847667753 
0.032870961939188606 
0.024142295940713043 
0.0065930228714316391 
0.0050410173822774537 
0.024964414421256877 
-0.037452856706502183 
-0.038449608296996389 
-0.03019485836649034 
0.001337782681274344 
0.044718470894406476 
0.036696623400372219 
0.01700200660417223 
-0.02579163179462288 
-0.05149939287543262 
-0.035614844561714494 
-0.022005641452157776 
-0.020680298817485187 
-0.0036003316834576056 
0.045068801160710291 
0.01434066316480399 
-0.034393768345760259 
-0.018999358671260212 
-0.055246552080871918 
-0.024036720632758479 
-0.032518826826181235 
-0.011101274977455448 
-0.012044070930621679 
0.076813862481507802 
0.078449560709055094 
-0.031104347061632353 
-0.064494774343680991 
-0.094483537431164652 
-0.026420074594197433 
-0.0005090957288303988 
-0.022990791838219671 
0.023114985475503433 
0.055623931312370117 
0.08622803998652219 
-0.0024537409228286432 
-0.021211761668685755 
-0.039215647631888638 
0.04647616909450418 
-0.0011570390411132032 
-0.048799022803615172 
-0.0016340644337753717 
0.061023266265600937 
0.071231683060217113 
-0.039123180973815772 
-0.027965589515636081 
-0.014972956156524933 
-0.071640008940232661 
-0.044463803719682157 
-0.025136023726888113 
0.053682560538762684 
0.078529632074122196 
0.064660747119147072 
-0.040241269177942976 
-0.042716312387386546 
-0.042355838195246936 
-0.02443390010327649 
0.0012006972111129075 
-0.049048371992950146 
-0.027940832132293016 
0.076976159522103391 
0.054268458038882014 
-0.033537074313705041 
-0.020700256481895114 
-0.010429907427882397 
0.039580963882076346 
0.017215490584551504 
-0.001737509884775956 
-0.0079397061223254392 
0.014622726238632268 
0.031231411019559834 
-0.040832295858440865 
-0.02497881116906309 
0.013225463661317273 
-0.024186692469058323 
-0.025343862191464367 
-0.027797289405296653 
0.035601080980772803 
0.09370056201877848 
0.044589727877708797 
0.02316422928771918 
-0.051547696958990169 
-0.030817160605899546 
-0.022464143491963164 
-0.011882506058884336 
-0.024309715273894202 
0.020623709661102232 
0.078932646761339501 
0.05077616700236761 
0.023596727658479866 
-0.032331647323625659 
-0.04273094665967176 
-0.040482441588750827 
-0.063889927058619914 
0.027353405594354764 
0.070189589176041678 
0.078078880884814822 
0.031564177413419998 
-0.013122666312294296 
-0.0082967362725784258 
-0.024598348222472796 
-0.052362265618168084 
-0.067837794616931096 
0.0030377305677238512 
0.070604973855024733 
0.10156777051545826 
0.012986120058349695 
-0.034527529449002926 
-0.014739231165036427 
0.0055588284830196443 
0.027110606753902068 
-0.044525512543983597 
-0.059730529449232378 
0.058060942349009749 
0.098513408472532621 
0.0040869564668608539 
-0.017976906366251991 
-0.03348419192996846 
0.020209094549828877 
0.026083050771125448 
-0.013942364228351285 
-0.057779633631325648 
0.0042197398489410122 
0.09282036179599569 
0.0090584635556548963 
-0.03422758964101482 
-0.052899792550444635 
0.032759577742982292 
0.044969049602122689 
-0.029310485612570988 
-0.053028927316498609 
0.020330839264860404 
0.067365411769241101 
0.022476633407550795 
-0.024400689400923936 
-0.062451652013716968 
-0.0027494541362438904 
0.039373560052199545 
-0.011593371798773303 
-0.04506502369899433 
-0.0057588140465219565 
0.019293592763280895 
-0.0083275362320324973 
-0.026970139904757044 
-0.0064583106449561068 
0.00013075408229334595 
-0.031660814244722682 
0.037349518654752951 
0.052766127950865604 
-0.025689566973858415 
-0.039241497927714794 
-0.034030208946060514 
-0.0087952331705544919 
-0.037870916033985173 
-0.040752364592593911 
-0.062801941953149309 
0.014525400125188579 
0.035084914001762772 
0.066220681800371398 
0.003658383176927574 
-0.012161708675333222 
0.01356572728773018 
0.014983401076992127 
-0.0018273651391765284 
-0.00092249741059959641 
-0.02700910527346613 
-0.017224086005878901 
0.036947525901272024 
-0.025729774310282529 
-0.033254714352239916 
0.0025818146531401917 
0.045590634320062912 
0.024599559494742414 
-0.013514246029472324 
0.012434769248233333 
0.0036778553417529591 
0.021039414217236822 
0.0046680835661866626 
0.0061589633248126698 
-0.052940872258408822 
0.006639128271662945 
0.0026567108655739377 
-0.038988157673638064 
0.071933202409820804 
0.075474340617161767 
0.0096414937923709251 
-0.045989623484208215 
0.045697264327108453 
0.014225598691679496 
-0.023142165179598002 
-0.067750181788727618 
0.026514669691268835 
0.0091272388119369215 
-0.023165840590579766 
-0.058982758438957623 
0.020696039996066843 
0.056643695383311425 
0.011508221551311655 
-0.0099132077402688291 
-0.028621768445408639 
0.013426384681870176 
0.01087967469596322 
-0.0283045025436733 
-0.018114461949971721 
-0.014786886455181048 
0.054926232205050142 
-0.016607124832630295 
-0.028082369799219322 
0.030865235661932333 
0.026515416331699324 
-0.016786801083944893 
-0.0059988591211941611 
0.0063985631830531901 
-2.8155798436352692e-06 
0.0079491757233526566 
-0.050681070044105818 
-0.033463603128581709 
0.014823337759597242 
0.028215833526828649 
-0.0021751653223027021 
-0.01596717571769668 
-0.0037852163370940398 
-0.032378457998628624 
0.014182057159682944 
-0.023954865266464825 
0.020050487322510364 
-0.022264377245932401 
0.0011609982587786833 
-0.0058974890222207926 
-0.0037308631944314411 
0.038628153413461395 
0.0040420520186758247 
-0.01104178780386042 
-0.014157574862115024 
-0.028621818690096012 
-0.0071552999573909837 
-0.0050313242246907046 
-0.011569137349512586 
-0.013675995629511203 
0.0036007630020317184 
-0.011471271474341353 
0.034185642741924455 
0.0049285114067346026 
-0.03423014096040753 
-0.0043795992004591992 
0.041113516877273895 
0.021979634998497428 
-0.02200786672119583 
0.01363313375588932 
-0.025767724241707653 
0.0027714981967938397 
-0.037834414083685777 
-0.01318143153982749 
0.043278423359549019 
0.050164326436252626 
0.026439138545211092 
-0.021930806439252878 
-0.021180248823932546 
0.0015250637857971644 
-0.017830236224223313 
-0.02517161745753654 
-0.0088600428017690646 
0.0072892528702484102 
0.0029036847254061949 
0.028136676993256088 
-0.035942379487361072 
0.040516000560282178 
0.034120720358074216 
0.034390660857358243 
0.016881397174880519 
-0.042542432619233579 
-0.0042396585725219494 
0.023531761055516708 
0.022472148972212821 
-0.030845500536127654 
-0.013509768194882458 
0.00083665918275767706 
0.02108107407352975 
-0.016957459607712614 
-0.0050815247202542673 
0.038091224530363059 
-0.0023513002082915044 
-0.035909949570555558 
-0.01744185137604282 
0.005478495239438482 
0.039728116113846537 
0.022447447640608891 
0.0043933477113465881 
0.0083803864349640423 
-0.021201758758633029 
-0.00070169661322807457 
0.017463922327960971 
0.018792576091432638 
0.021887303537437244 
0.042224373056036033 
0.058439950708865311 
-0.00082306206592789026 
-0.0190726758400112 
-0.046862983096620119 
0.0037007487450623497 
-0.0062045324910317027 
0.010688554814348524 
0.006772480061959997 
0.020924761207184114 
0.043190618661967141 
0.005839893986971427 
-0.022296941798688033 
0.0016005594775940521 
0.00071589874017001097 
-0.0092255811893001173 
-0.023320684023117832 
0.0057743888112217695 
0.018109096462951436 
0.020371977101660475 
0.0058359798732135039 
-0.014069335529851618 
-0.0013418811297599416 
0.051935743871575464 
-0.00011066566951179332 
-0.030479361330666806 
0.020851676528640867 
0.020741513553621554 
0.019634473402589954 
-0.037685297694296759 
-0.013406427476142277 
0.068355291505404217 
0.066285178293343322 
-0.02628934084358513 
-0.051024598716427609 
0.016412705983669371 
0.0081515015738650113 
0.00070139779305381075 
-0.057888175939987727 
-0.025342528388550958 
0.063507771451503728 
0.032058697123179693 
-0.042820849470835011 
-0.041557760734043173 
0.028219064145440627 
-0.029729720985478249 
-0.038276623091394887 
-0.056688049816620255 
-0.052426553572085359 
0.0050449075332951992 
0.030299692666534969 
0.0045092496111873185 
-0.021391038455021858 
-0.011617452286255254 
0.0041142685155341682 
-0.010238317595155188 
-0.066332260413001054 
-0.036773182391789373 
0.00081237656388293738 
0.054339068169780923 
-0.032635954648040602 
-0.072953875758353923 
-0.050368328611109868 
-0.0056627803371414017 
-0.017735955703344665 
-0.0053703844472360986 
-0.013842261013309771 
0.05004477040717973 
-0.023234331966467271 
-0.049981449482545383 
-0.076131369617577896 
-0.053484134068831395 
0.014705002891203932 
0.0080841250608610447 
0.0085135527437482025 
0.017211216713919363 
0.013908033719240742 
-0.025370618850379181 
0.0180576285094463 
0.022299472328602951 
-0.048063001168807962 
-0.083047846785826454 
-0.038005150320974498 
0.017058434742882145 
0.037697935193503028 
0.001592505110087969 
-0.039679653038587483 
-0.005202256978010654 
-0.00073674449472430948 
0.028992241703905637 
-0.030293665134578731 
0.014300362338996403 
0.076726330367619791 
0.066597758193333009 
0.0083113141100449178 
-0.017037261374123886 
-0.033760253003861949 
-0.014143408835818374 
0.039130068226608632 
-0.010536040349483982 
-0.011172495846730232 
0.0012123084070095372 
0.053730242332673456 
0.02820182924107232 
0.0055815056166796063 
0.037695892390236546 
0.026233515107977147 
0.047539694783870733 
-0.054716878995151395 
-0.0020268321320146198 
-0.0079226382307764354 
-0.013873559718320353 
-0.013760080190115102 
-0.0095750846845105153 
0.002457635894191651 
0.012373608018836121 
0.025726785934948791 
-0.076152302171279426 
5.1642202282515944e-05 
0.029615805450097319 
0.021641673956019319 
0.023896756619714524 
0.010771848886075215 
0.034083672601281464 
0.02582987888014799 
0.010286237113849265 
-0.055434919882739589 
0.018085014563054232 
0.032775560069086294 
0.023078330566872023 
-0.012729889433108248 
-0.029995246445047863 
0.0023360977162961913 
0.02361077388043361 
0.027520026182300986 
-0.01359797632746091 
-0.039392224459665733 
-0.0064371198767714183 
0.033600972332588519 
-0.0019108377292896114 
0.017117284541564623 
-0.013595232895125762 
-0.01407681196086486 
0.038221717831909537 
0.0017795697101576254 
-0.0012713539024238477 
-0.041036197303253655 
-0.0039595288690303099 
0.022698948548021822 
-0.026804302587311923 
0.0062086187215482222 
-0.013902221816601659 
0.025197088639978698 
0.030427122487432297 
0.027779212148003697 
-0.00034920761980732887 
-0.020424592289891012 
0.002454479617879353 
-0.0036455108208817782 
-0.035296943099696297 
-0.010029162104743933 
0.01370256169117663 
-0.011943792570066211 
0.022698473865138312 
0.023872145062040745 
0.030298337934635027 
-0.0022541946403570432 
-0.0034968572963489483 
0.0067534345201933615 
0.00067062120101189923 
0.040659144839498951 
-0.014058530837196727 
0.019721855365582748 
-0.0032158764421594643 
-0.013186748797168728 
0.015268546547535356 
0.0057278591781532162 
0.032208905678977127 
0.019235805023719171 
0.040978687647669869 
0.0054194627757213508 
-0.020196618194094063 
-0.018016296730141514 
-0.034553166985443119 
0.010353081436776811 
0.0043991491830919173 
0.0047768719547012749 
-0.0019712673526602682 
-0.022883180911996981 
-0.032601223506564622 
0.022852149682194432 
0.036023055250288934 
0.0047461708390935517 
-0.019611921233047371 
-0.013815617013101163 
-0.01444572222154099 
0.020811109235510741 
0.024703240838905079 
-0.007984045858177238 
-0.0042430438681148441 
-0.0071892137609723041 
-0.012898754104951712 
0.015866631595643464 
0.038756284259147303 
-0.020414622106045929 
-0.019445713498512335 
0.030425157928344784 
-0.019656350700010039 
0.021062973843569026 
-0.021775530251750757 
0.006643961009359909 
0.048877971660260214 
0.062349882440395979 
0.046135860112258682 
-0.061148400748947229 
-0.034195388218891058 
0.003735418018536326 
0.004722831067242441 
-0.024980022095451828 
-0.029490022211869991 
0.019788854942847253 
0.053533085560878428 
0.030039887442663438 
-0.029946523558440633 
-0.043753194920234467 
0.0013892932805067333 
-0.040978527902635176 
-0.019935465123844906 
-0.043153420173017307 
0.012492981538057816 
0.059548173350094831 
-0.0069610035992816533 
-0.060194598046164512 
-0.042920413586812256 
0.0066017887816940991 
0.033003899945890661 
-0.014098563031225727 
-0.054813849029364162 
0.025186415278339112 
0.028629211647859504 
0.033233159968180458 
-0.01050945220786129 
-0.030496368051335158 
-0.016890695640117998 
-0.0049805326575408067 
-0.0039147384005384167 
-0.0038138810592761602 
0.030481545799424532 
0.010921894819348261 
0.022305318857602209 
0.011509085054778797 
0.011157894090538299 
-0.022526001604843346 
-0.02811397716129926 
0.0033490050842053011 
0.039354212211372801 
0.059300988821759541 
0.0093027323636807064 
-0.098825534996265951 
-0.056667614001682597 
0.049810041555028661 
-0.013176988603445922 
-0.020127391511503959 
-0.030704694095002 
0.0024535516363693127 
0.020802092399976765 
-0.055003711889505626 
-0.023805216200959052 
0.020446886071015712 
0.015853657990027265 
-0.00071757630993415748 
-0.036779206856729862 
-0.039863860446595525 
0.03155330450850747 
0.029655865980145801 
0.0077222935187815523 
-0.041513459953377997 
-0.025291785765756081 
0.00079073916459535378 
0.033131378836776089 
0.044837025960813376 
-0.023503576110496156 
-0.00042099550128428943 
-0.0032856097478650538 
0.020137335451036974 
-0.031767562226855062 
-0.0019633577338282813 
0.003969287258309708 
0.011262259584456076 
0.036233113487992963 
0.0081450782245354025 
-0.010204211399086368 
-0.01390047792007554 
-0.018390022045939283 
-0.032841349337462432 
0.0056335689795911446 
0.013028783166267446 
0.035490015152603138 
0.033670702615494895 
-0.0025449129628717644 
0.012006101794060395 
0.0072632045659586407 
-0.03606774829947805 
-0.0092315345195688233 
-0.0047683182204365984 
-0.050441038797315312 
-0.067285816568605591 
-0.019960125456887925 
0.053693488204578969 
0.038409251533836716 
-0.0083349969072669759 
0.0010558701339885646 
0.02012928538493388 
0.029076410805340427 
0.037604774617736279 
-0.055051197163310424 
0.0046569219828702865 
0.0016662124311317957 
0.017808756487027316 
0.01725186093235398 
0.0041063952136586876 
0.022284626489663121 
0.018739221383740672 
0.030597556016019722 
-0.075953400944545071 
-0.0038959166597868468 
0.021397836135641651 
0.042908813860487227 
0.01829257802706848 
0.010280378942046212 
0.046702157117795726 
0.052481452885248726 
0.02080876172613573 
-0.03202325720128333 
-0.0060685670210841947 
0.020843723965339098 
0.026323949544322604 
0.011289344429130755 
-0.033289862421894634 
0.018557463815242203 
0.040361667738858735 
0.012576601641626262 
-0.061707425261139516 
-0.0059677931551645478 
0.032520596535564432 
0.048997841025558667 
-0.036100524758558357 
-0.019553494172329291 
-0.040212181749929014 
-0.026865595387739149 
0.0075841654245376545 
-0.064217936578641027 
-0.027317148381012533 
0.021886690839643789 
0.049786696432643815 
0.042019985262565271 
-0.0054473009164406217 
-0.00098881605940658664 
-0.013997123213626938 
-0.01172844472518467 
0.026489644141621846 
-0.0063844655831583131 
-0.045212378777201925 
-0.00089492768752824322 
-0.0050889448844244128 
0.012770219808794126 
-0.01839517738770231 
-0.0219655507255733 
0.014132569816896284 
0.018486546018190372 
-0.024871799911895309 
-0.032958606453429448 
0.031681244122239063 
0.024127861404794077 
0.004063972017114669 
-0.018711857369507194 
0.00054747863327665866 
0.0069185658660302811 
-0.027143983608889408 
-0.014663246709573249 
-0.028348299897710538 
0.001618239816680372 
0.027394326859845972 
0.011719527587972589 
-0.033152497587499059 
-0.02666758800089369 
0.022528891041446997 
0.0068958823027309921 
-0.035457073535757888 
-0.058238478241093301 
-0.0047089279468782589 
0.02503946623730606 
-0.010699037803763972 
0.014214934698230845 
-0.020541023705948142 
-0.0098019801960098074 
0.027787111867099024 
0.027848958478015218 
-0.0096386252501425764 
0.0024799747586494742 
0.0075315718251576938 
0.012244426719765191 
0.0037176218301313816 
0.012475430792859179 
0.040932391045242746 
0.027838735466691883 
0.014205531831710579 
-0.012009696596883496 
0.017525123922101638 
0.021631589157016993 
0.00011297706436117513 
-0.014833093218256186 
-0.018022788118819098 
-0.01785877755280103 
0.013505189464523462 
0.042930825854203949 
0.0043006091348696453 
0.020399304245668489 
-0.014944527786667335 
0.037578438192822743 
-0.0028734832043043395 
-0.039793786426967126 
0.034735272479479135 
0.050056583767789695 
0.03659085222369507 
-0.0076853805649601441 
-0.010747571306869652 
0.022459064866588784 
0.053037704580613736 
-0.041511789628285375 
-0.045419909613767767 
-0.020221528930499576 
0.024488662341939364 
0.037664084975330227 
0.0035002527571439653 
-0.021869154183880714 
0.028552064642905346 
0.070282980601339959 
-0.018996229675034677 
-0.0038533689287259228 
0.00020807067123966699 
0.041303604588093346 
0.035915820400937278 
-0.061955631456903151 
-0.028480810134304639 
0.062624542395030763 
0.067606033392406284 
0.0051546401827950658 
-0.0083676642701214551 
-0.040598499449370967 
-0.0094416226006045524 
-0.0040796570162712981 
0.017105182955579029 
-0.049125099555306459 
0.038528793577147072 
0.020942157657496283 
0.010486014449298114 
-0.020319028229474036 
-0.027711746928769619 
-0.035814446910623417 
0.0079069449964493822 
0.013010556946453969 
-0.014828270333172871 
0.019978673731813633 
0.0079883065789988546 
-0.052944617343560603 
-0.021741373193929981 
0.022477352362957444 
0.049645300406934913 
-0.015911534045160856 
-0.058737934094833973 
-0.027601760080126121 
0.10569435783371799 
-0.0092198290596559665 
-0.042186225555004002 
-0.040107963384314368 
0.015638382077629798 
-0.011206397035051142 
-0.065391251551320292 
-0.01266092078736555 
0.031098019734892138 
0.017474774911841715 
0.022174115779644624 
-0.068804555599227962 
-0.024022176603216885 
0.023798194840103981 
-0.031494887640720427 
-0.035900675512230709 
-0.031636591196919292 
0.050344618674191974 
0.078305168007710216 
0.025940612819418798 
-0.043898320596785965 
-0.01479637198718515 
-0.0036067107986252592 
-0.010134209335887469 
-0.021058028455686596 
-0.023860530328908894 
0.055635964012275316 
0.048016677802933713 
0.0086489844941944876 
-0.025827099622589653 
0.030388412417884647 
0.021092659192153466 
0.0092427542183027133 
0.013912808173837823 
-0.018142780023324964 
-0.015131042103272258 
0.046472941779792568 
0.033202370549137716 
0.016071641834250562 
-0.0044706636437154626 
-0.0087334431254453525 
-0.026338549504293061 
0.020318845656038063 
-0.0024405827459241278 
-0.033122433206176638 
0.012128347137334567 
-0.0041113277745965376 
-0.020201538204791078 
-0.022216374935355401 
0.0076097368784973154 
-0.0014263571246304096 
0.017513260132600583 
0.0065565830646605447 
-0.036289009266329546 
-0.030800808986071355 
-0.061045014691447408 
-0.0054614575507490855 
-0.00017125710651024945 
-0.039827623627696089 
-0.039840060993934577 
0.025438835197699489 
0.041791879061925025 
-0.013394646618697081 
-0.032610381689672452 
-0.01026082489009659 
0.031872582867578221 
0.026173440748826556 
-0.023767531971073376 
-0.052775755968964805 
-0.021027526675777102 
0.0081187355591850318 
-0.0098594368525101485 
0.002372156495938701 
0.034612953752249632 
-0.014631269556992602 
-0.02958892636058582 
-0.0089808832903040016 
0.022016020404534663 
0.026580833365932529 
0.025030554978901911 
0.033273809251905685 
0.026639577525205928 
8.5495721031100447e-05 
0.014206278235319688 
0.011946981911387725 
-0.011734179170543561 
-0.050437188459790054 
0.0021675815591104364 
0.022778201746101897 
0.026181208864771426 
-0.012196079653672032 
0.038135253626244481 
0.025836031009883069 
0.021947703613585553 
-0.041353173908271347 
-0.065931654488565652 
0.016620919820910952 
0.035596933956042395 
-0.02912703000146832 
0.031182117576878391 
-0.008632007117481591 
-0.017690810415239774 
0.013017207286084218 
0.0063598505127890051 
-0.048993418812602142 
0.013970939860309253 
0.021932911070682785 
0.026843199184360834 
0.012172276068645019 
-0.020066762774708733 
-0.0094810598718905216 
-0.0050501405377294788 
0.011057099991978932 
-0.011107838478182896 
-0.025207193633376649 
0.017211656094277706 
0.030633543386758489 
0.036509831196516768 
0.0090492334868075945 
-0.024806240590797203 
0.009287101752054985 
0.044950499324770271 
-0.0087493135892571117 
0.0080691171355966908 
-0.037189102320465781 
-0.01031199964825621 
0.013241128184914608 
0.022025156109902091 
-0.064140484799876857 
-0.024852149088973367 
0.022168414315938197 
0.028989836949410246 
-0.00010474396943745987 
-0.065132372597154028 
-0.0066890126504356145 
0.062927986982096396 
0.04148005703972954 
0.0078127777651790277 
-0.0075954976169221979 
-0.026690218108289004 
-0.0091410439929772262 
-0.055955925840629361 
-0.017487634419257207 
0.01888542629576959 
0.057395088540887949 
0.026928760747749556 
5.0399870388694486e-06 
0.0079930872284824945 
0.0048802949321274684 
-0.038646680383980087 
-0.0021052800316991873 
0.0076287741576319271 
-0.021122729471981908 
8.6680337387170329e-05 
0.014202814048516024 
-0.041683642004299103 
-0.0035522511339011464 
0.035838283466316595 
-0.017532046040103437 
-0.00071936637429058088 
-0.0408779742476022 
-0.0003141581769420233 
0.012043130722363479 
0.011442880024847403 
-0.043894992529801523 
0.0014732079399708022 
0.017687361018231589 
0.028251197502335224 
-0.013765429145457798 
-0.0099483102754329804 
0.0033875829914119453 
0.032031993125054579 
0.03160080524306854 
-0.026028004028484195 
-0.0080757993320722116 
0.028684278912203973 
0.012812927046362943 
-0.0014813687361778997 
-0.046056962863911782 
-0.050081305223307254 
0.053340480196844842 
-0.0035913958643120606 
-0.01500856967848504 
-0.023620340957695239 
0.010669643503927916 
0.035620375752547249 
-0.034278427075547374 
-0.066785820296118334 
-0.032134900835094328 
0.035064171900908943 
0.065594078710393453 
-0.0035248989630818958 
-0.038838724816852806 
-0.042411062828266594 
-0.038841005052199701 
-0.024942224972559733 
-0.0029912351928929842 
-0.0057384397596721556 
0.056385709599934421 
0.014858507087378642 
0.0082553708566284311 
-0.013158574324475083 
0.001625402379938764 
0.011521000797695791 
-0.029863738498125968 
-0.0085805726242608859 
-0.02690894224852038 
-0.0074123153555327968 
0.048516062441902139 
-0.0034664545490821577 
-0.020861624883931625 
-0.018403304585308752 
-0.013245708315116313 
-0.01008185014055895 
-0.03520071566964527 
-0.060286746250451995 
0.011725598498820754 
0.0061769328739963983 
-0.012769911489104497 
-0.042348612244298249 
0.024848895217806463 
0.01521292822336324 
0.0017362784756877476 
-0.0088976973653349285 
0.0058012906063405912 
0.019225007234788188 
-0.0078277747501741442 
-0.0058805545172770013 
0.013521581344068305 
0.024067160554604325 
-0.0080986712674927519 
-0.025237342977285783 
-0.0022252928060932532 
0.022503780940623858 
-0.0037344637758025493 
-0.015198614188449734 
-0.025921875549789461 
0.0087603141101331092 
0.0017592522618676105 
-0.021866210703535092 
-0.031095379636990293 
-0.0011241457140679415 
0.033207471529545153 
0.009447051489859944 
-0.02294404939041023 
-0.069635707278038597 
-0.01572619528507866 
0.055161209826834319 
0.019503599170036655 
-0.042501801135229431 
-0.011269031394492486 
0.043851983516943971 
0.048974089676167697 
-0.00051822899551198841 
-0.039739452982936026 
0.0052846032992871234 
0.010246314615243767 
0.0022526077064363458 
-0.0079289323398265867 
0.0080633599909095254 
0.0050061743361702856 
0.035427437193413028 
0.0018764568539406004 
-0.039312960508821083 
-0.039770410095724934 
0.038491245057860002 
0.034322764751124619 
0.015522469224378813 
-0.014604351858234867 
-0.051030169434095843 
-0.0067745165558673916 
-0.030900855368854424 
-0.0075351897299487762 
-0.032897766343562292 
-0.02843281895141354 
0.0089857338315374614 
0.064057337875325665 
0.0071459520052519158 
-0.029875227533285705 
-0.095971956239401177 
-0.038170185862631156 
0.011508633325027577 
-0.010587682767161427 
-0.018280785647201842 
-0.076258162616021613 
-0.021565361132490687 
0.023115937869653456 
0.016805915234909159 
-0.054075805001723438 
0.075498365253292204 
0.0096866243996265207 
0.00071300190464687282 
0.032523251739447243 
-0.029139002648227282 
-0.038979130156476076 
-0.032222573774733615 
-0.0030475458272331557 
0.05213828170168279 
0.059669969660299235 
-0.0038129414607179714 
-0.034879351272130148 
-0.0093225804891426262 
0.0087691239169658888 
-0.00057501507433041542 
-0.0074186915027799364 
0.013059845186538868 
0.093301655102990252 
0.017834067702870257 
-0.0096439435708432567 
-0.022606193104354588 
-0.015158866544020863 
-0.027619142960794086 
-0.0072573143578085614 
-0.016826969237490223 
0.047474586964209933 
0.069772641405446062 
0.015486437247309628 
0.016757858922456133 
0.012516364872771628 
0.041495098823334083 
0.0098455312050806394 
0.039286723864091357 
-0.060478231270749479 
-0.01136855828481826 
0.01488463893461652 
0.013110492965542689 
0.0039282649274124098 
-0.0065564156496014823 
0.04003169698728884 
-0.013374041270183584 
0.012176370858354567 
-0.014848939138957629 
0.032110801795974975 
0.012781898949231324 
0.032694758129539446 
0.019383442585710814 
-0.025556392683046322 
-0.0069113432099328622 
-0.026848242561227934 
0.01376080075908828 
0.016740738471451098 
0.017377378616158012 
0.031019187031756011 
-0.045209515499167414 
0.019999945856055818 
0.021657887591686659 
0.017160397887714982 
-0.0013280048438749578 
-0.029438259696792261 
0.013566440387003753 
0.04830674162608449 
0.015796909343709344 
-0.01455919618205564 
-0.036272916154457713 
-0.023861355968966682 
0.012426327503340287 
0.041036442646213707 
0.0067426426821844678 
-0.0025011091302932008 
0.0018418176639575718 
0.0091109991994895202 
0.0033416812745116035 
-1.5783067468209236e-05 
-0.014631738272426375 
-0.016049288781532195 
-0.019568796864771663 
0.013156324491704896 
-0.00010002461913965059 
-0.026038916121293693 
-0.00074895697471447575 
-0.022020990763959331 
0.0059525611197614363 
-0.00082283862257227563 
0.038627686718218167 
-0.014579910219022383 
-0.0069044435949978545 
-0.0042571585163847818 
0.014676020449384958 
0.023737398653763224 
0.0083126899759157231 
-0.014326486290059053 
-0.02055512887070619 
0.0087700031279061494 
-0.015460904765441021 
-0.012870085841680243 
-0.0070639684942420721 
0.0051807642283630958 
0.012691502717861434 
0.025667251672255156 
0.079522141354114131 
0.012842114490208976 
0.0084883945014367496 
-0.016513343302311859 
-0.041052108364759692 
0.0039929780836387707 
-0.019696420378596004 
-0.0011496741295667018 
0.026629044395835071 
0.0047920754316059817 
-0.003917747627620303 
-0.0024660166116776518 
-0.016920086523406954 
0.012669219723050854 
-0.01565926842113163 
0.007724033753709305 
0.014372284788620807 
0.019623864755442207 
0.036424816575378632 
0.011375500054705397 
0.017599001234273725 
-0.025921094010383092 
-0.017304360181516442 
-0.02371892881873151 
-0.01652879389217158 
-0.00048600006969455345 
-0.001477458570621207 
0.0051919382212422746 
0.0015350296112251495 
0.011751843867142613 
-0.0091367621370964189 
0.00046688635577480823 
0.021027234485234025 
0.041949713593189594 
0.018873845571923918 
-0.016907833735173437 
0.04783764106026106 
0.027885730709282595 
0.0034966142273163857 
-0.0060743818641709729 
-0.027329631564447267 
0.012746282391304091 
-0.041133023185444269 
-0.033610238118521173 
-0.043877537481510333 
0.0066434473615772345 
0.012958159836972198 
0.010556817329555905 
-0.025025152894404643 
-0.006307601402918318 
0.016689835700307919 
-0.0040461838100888502 
-0.041421227826876204 
-0.021478982661505157 
-0.035017650807536355 
-0.0063877133190489797 
0.022623366970265551 
0.018317204427137766 
-0.016520439550489228 
-0.0200658984299102 
-0.0089260173179491892 
-0.0070233760850165368 
0.010945846602139065 
-0.02584995979743061 
0.0049257654596326439 
0.0073819031721633595 
-0.011832641777656422 
-0.011979700419774803 
-0.034373494934838988 
0.021666320065232409 
-0.00044208258837691669 
-0.0061806161451615493 
-0.018361921466045785 
-0.022950230173665209 
-0.025710131334289156 
-0.021184272293382281 
-0.03454491850509462 
-0.0060551553418574725 
0.033818836702213806 
0.040548659221984321 
-0.017579176002250698 
-0.035203421000646516 
-0.018830280177969172 
-0.010761207144051961 
-0.0001515602902042513 
-0.006334910239507446 
-0.021373810972668807 
0.0086467774147617263 
0.043145362232796039 
-0.02334562972838692 
-0.097536346868226806 
-0.051299998649639453 
0.033896031437516266 
-0.019639788673021734 
-0.03250687848917564 
-0.019095969831654815 
0.011378158696876492 
0.017688570977421769 
0.010210060794667932 
-0.085267621692042661 
-0.051998658967188485 
0.004471488842204766 
0.032243939058175741 
-0.0073731666146906061 
-0.026808575534096532 
-0.034590357122184612 
-0.021184184447287719 
-0.056876206123661711 
-0.021597955184113365 
-0.030268844869504454 
-0.031457423030307977 
-0.00010979733851949398 
0.030630808812278299 
0.016704282070688494 
-0.033583809639370098 
-0.057813715274835878 
-0.003108492420461842 
0.035044575917149323 
0.023905535167920048 
-0.04135162886756176 
-0.028697607177078067 
-0.017006179254750571 
0.031282359033276981 
-0.016830339151165427 
-0.036830586688859968 
-0.030038335930992904 
0.0023217310672887558 
-0.0024922902974173831 
0.063004756874451298 
0.020163877368994765 
0.022591300107254634 
-0.041036108571630515 
-0.025770720617134032 
-0.014533762009761718 
-0.012231948123304852 
-0.0034619011330585675 
-0.010241647098839273 
-0.0067417147130784923 
0.0028529876543020947 
-0.00058351229671934257 
-0.0049263569911468189 
0.028962166539200761 
0.065446941745229109 
-0.01551322643928091 
0.017873972068309651 
0.023285199906963115 
-0.011153169397332166 
-0.028580642273676859 
0.020023041220878467 
-0.0038599300676185077 
0.006102376266783221 
-0.031503212276670571 
0.018972268164060644 
-0.007351656038495598 
0.0070858640809798494 
0.019616316870445794 
0.0074656693771549022 
0.028822328152266347 
-0.0062277424244900712 
0.0074059758200911516 
0.037600731613120913 
-0.0090681916819413122 
-0.010594382246110586 
-0.02022705817787885 
0.017815498937554779 
0.037030510451909887 
0.012633909029663715 
-0.0068406326735220898 
-0.021988709734352969 
0.011671771659945165 
-0.023104602977301766 
0.033104272273523715 
0.019119612250485894 
0.019065417837434206 
0.030588312877398025 
-0.0091728628144372663 
-0.027252202004805687 
-0.03108888419300404 
-0.026214931587695105 
0.014393750144792484 
-0.0095039688041975434 
-0.010502793550715485 
-0.043190669562330163 
-0.043530991601896371 
-0.016231073582260457 
0.019192568128726172 
0.028496923132911592 
-0.00019618092287548448 
-0.0064041130275709277 
0.019962197623499385 
0.010227486310122302 
0.020051983683177625 
-0.0080098360435534866 
-0.009962513811788731 
0.010259246749359179 
0.0060921467125607523 
1.5931544312661232e-05 
-0.0084009686234498993 
0.0033055551402667574 
-0.00023739234786992875 
-0.0056910175687190159 
-0.00067551842303597751 
0.029940744005029406 
-4.4267933235229873e-05 
0.014740460592226758 
-0.04077493890338732 
0.012259736757824394 
0.023300472136522674 
0.0052511601466019697 
-0.023081225366609504 
-0.024387103405460027 
-0.014623933678422268 
-0.01258275257066345 
-0.012532388593508243 
0.025488294677187454 
0.0062377770015646502 
-0.032244360581704393 
-0.0038892015757636734 
0.026220964340924448 
0.0099790480502918479 
-0.0098446214618613456 
0.023898878894398547 
0.014165342871574123 
0.0041847145554490721 
0.011546174259567681 
0.0063354504289328418 
0.035586126471229378 
-0.0002296395481127262 
0.033625363990619085 
-0.00041650155486297659 
0.012930344396361921 
0.03141403226150534 
-0.042846519340069368 
-0.03243992192884259 
0.052690743002634821 
0.00090950823786277739 
-0.025561175284381354 
-0.046006818679652194 
-0.012218124131725452 
0.014888438437457418 
0.019703121833845091 
-0.0020333306764422172 
0.021352378331061021 
0.018518452124103798 
0.0070266111738635211 
-0.012706321269925727 
-0.017667962759755771 
-0.020772578436049103 
-0.0047082800587306788 
0.0037486810409501068 
0.0221984269854207 
0.0023973169561715773 
0.025657569705360948 
0.0053417339056875063 
-0.0019232878550366024 
-0.042631366036537381 
0.018804637165615996 
0.033877724597475838 
0.029861832641902144 
-0.018806433121281448 
-0.013206408355201156 
0.012340621386942335 
0.046972644048283288 
0.030777676278064103 
0.043574436286350472 
-0.021797277050040798 
-0.0051266948911377411 
-0.033626055498362284 
-0.046267975657366636 
0.022591165528655418 
-0.016735933910972872 
-0.0034628727968198021 
-0.025243518281345498 
-0.0012078942179468855 
-0.06646756580896003 
0.019394231894056965 
0.012555800357072922 
0.016324933847499116 
0.032661018869538469 
-0.011291395240313695 
-0.028243409631610036 
0.0010386348972086089 
0.00088935598580686765 
0.0052087510908709403 
0.027812640381507502 
0.024675558288165072 
-0.011694496957413371 
0.00031253878524615885 
0.010468899316352786 
-0.009448785004674165 
-0.02413502319635754 
-0.046887726560381891 
-0.027528601628223466 
-0.016719040832259287 
0.007323359449387782 
0.018640028132958623 
-0.013661323039785541 
0.032470932143537044 
0.037714855354634501 
-0.057460476728747982 
-0.065372257664833608 
-0.039770129066896857 
0.013157677753294954 
0.01039201093068203 
-0.030836873689523564 
-0.0012953524545016703 
-0.049480478663457679 
-0.012920843157631347 
-0.012685339551381581 
-0.0079425087316552061 
-0.035694134476801809 
-0.00064030427770299858 
-0.0063541714296125552 
0.036093803748796838 
0.031238407579968715 
0.05480431924942341 
-0.049050611587806096 
-0.033174619793584909 
-0.067291102307047213 
-0.057669362637801869 
-0.0054552306009928069 
-0.022826853962376582 
-0.0011942158626303367 
0.030130133328379573 
0.040524439086869368 
-0.025589234899263742 
0.0021577146917997189 
0.017044996453431594 
-0.025904412378640943 
-0.056854912485537368 
-0.050384426629303029 
-0.01187577484672255 
0.0040929698090286168 
0.030647341829405719 
0.0094086611628234965 
0.040170737046737563 
0.043762514831353801 
0.019808726514776068 
-0.0031243834985337487 
-0.014692776366735312 
0.0085355920844765107 
-0.010515079955166162 
0.069811479266384618 
0.025161736199756653 
-0.055933679444321711 
-0.030707287877606505 
-0.02715388266416854 
0.015890296448784494 
0.028170649729593159 
-0.054285287714970223 
